<?xml version="1.0"?>
<opencv_storage>
<cascade>
  <stageType>BOOST</stageType>
  <featureType>HAAR</featureType>
  <height>48</height>
  <width>48</width>
  <stageParams>
    <boostType>GAB</boostType>
    <minHitRate>9.9500000476837158e-01</minHitRate>
    <maxFalseAlarm>4.0000000596046448e-01</maxFalseAlarm>
    <weightTrimRate>9.4999999999999996e-01</weightTrimRate>
    <maxDepth>1</maxDepth>
    <maxWeakCount>100</maxWeakCount></stageParams>
  <featureParams>
    <maxCatCount>0</maxCatCount>
    <featSize>1</featSize>
    <mode>ALL</mode></featureParams>
  <stageNum>14</stageNum>
  <stages>
    <!-- stage 0 -->
    <_>
      <maxWeakCount>4</maxWeakCount>
      <stageThreshold>-1.8301930427551270e+00</stageThreshold>
      <weakClassifiers>
        <_>
          <internalNodes>
            0 -1 25 -2.3484684061259031e-03</internalNodes>
          <leafValues>
            8.6111110448837280e-01 -8.9292544126510620e-01</leafValues></_>
        <_>
          <internalNodes>
            0 -1 24 1.7468953505158424e-02</internalNodes>
          <leafValues>
            -8.6011528968811035e-01 6.1350822448730469e-01</leafValues></_>
        <_>
          <internalNodes>
            0 -1 9 5.6580784730613232e-03</internalNodes>
          <leafValues>
            -7.2723001241683960e-01 7.7905684709548950e-01</leafValues></_>
        <_>
          <internalNodes>
            0 -1 66 2.2774245589971542e-03</internalNodes>
          <leafValues>
            -8.7787914276123047e-01 6.5007770061492920e-01</leafValues></_></weakClassifiers></_>
    <!-- stage 1 -->
    <_>
      <maxWeakCount>3</maxWeakCount>
      <stageThreshold>-1.4132219552993774e+00</stageThreshold>
      <weakClassifiers>
        <_>
          <internalNodes>
            0 -1 36 -3.7900083698332310e-03</internalNodes>
          <leafValues>
            3.9823007583618164e-01 -9.3360996246337891e-01</leafValues></_>
        <_>
          <internalNodes>
            0 -1 27 2.2251490503549576e-02</internalNodes>
          <leafValues>
            -9.0294367074966431e-01 4.8667204380035400e-01</leafValues></_>
        <_>
          <internalNodes>
            0 -1 63 2.6498683728277683e-03</internalNodes>
          <leafValues>
            -9.8347043991088867e-01 4.2333173751831055e-01</leafValues></_></weakClassifiers></_>
    <!-- stage 2 -->
    <_>
      <maxWeakCount>3</maxWeakCount>
      <stageThreshold>-1.0143729448318481e+00</stageThreshold>
      <weakClassifiers>
        <_>
          <internalNodes>
            0 -1 1 -7.7238301746547222e-03</internalNodes>
          <leafValues>
            6.8292683362960815e-01 -8.9863550662994385e-01</leafValues></_>
        <_>
          <internalNodes>
            0 -1 50 -7.1360333822667599e-04</internalNodes>
          <leafValues>
            8.8604015111923218e-01 -7.5056833028793335e-01</leafValues></_>
        <_>
          <internalNodes>
            0 -1 69 1.2239404022693634e-03</internalNodes>
          <leafValues>
            -7.2986191511154175e-01 6.3483083248138428e-01</leafValues></_></weakClassifiers></_>
    <!-- stage 3 -->
    <_>
      <maxWeakCount>4</maxWeakCount>
      <stageThreshold>-1.8408554792404175e+00</stageThreshold>
      <weakClassifiers>
        <_>
          <internalNodes>
            0 -1 31 1.5245818067342043e-03</internalNodes>
          <leafValues>
            -8.9555126428604126e-01 7.4358975887298584e-01</leafValues></_>
        <_>
          <internalNodes>
            0 -1 22 4.3914612615481019e-04</internalNodes>
          <leafValues>
            -7.8743624687194824e-01 9.2411482334136963e-01</leafValues></_>
        <_>
          <internalNodes>
            0 -1 30 7.8403679654002190e-03</internalNodes>
          <leafValues>
            -8.0123549699783325e-01 7.3809599876403809e-01</leafValues></_>
        <_>
          <internalNodes>
            0 -1 68 4.9726571887731552e-04</internalNodes>
          <leafValues>
            6.4336752891540527e-01 -8.0487781763076782e-01</leafValues></_></weakClassifiers></_>
    <!-- stage 4 -->
    <_>
      <maxWeakCount>5</maxWeakCount>
      <stageThreshold>-1.4294488430023193e+00</stageThreshold>
      <weakClassifiers>
        <_>
          <internalNodes>
            0 -1 54 -2.3671141825616360e-03</internalNodes>
          <leafValues>
            7.7777779102325439e-01 -8.5338348150253296e-01</leafValues></_>
        <_>
          <internalNodes>
            0 -1 45 -1.0042693465948105e-02</internalNodes>
          <leafValues>
            8.9093065261840820e-01 -6.7147755622863770e-01</leafValues></_>
        <_>
          <internalNodes>
            0 -1 15 -2.0992890931665897e-03</internalNodes>
          <leafValues>
            6.3274538516998291e-01 -7.0741856098175049e-01</leafValues></_>
        <_>
          <internalNodes>
            0 -1 62 -3.6833300255239010e-03</internalNodes>
          <leafValues>
            -9.8300331830978394e-01 4.3257778882980347e-01</leafValues></_>
        <_>
          <internalNodes>
            0 -1 67 5.0863099750131369e-04</internalNodes>
          <leafValues>
            3.7025296688079834e-01 -9.0827399492263794e-01</leafValues></_></weakClassifiers></_>
    <!-- stage 5 -->
    <_>
      <maxWeakCount>5</maxWeakCount>
      <stageThreshold>-1.4730151891708374e+00</stageThreshold>
      <weakClassifiers>
        <_>
          <internalNodes>
            0 -1 26 -5.8002867735922337e-03</internalNodes>
          <leafValues>
            6.7647057771682739e-01 -8.5578745603561401e-01</leafValues></_>
        <_>
          <internalNodes>
            0 -1 59 -1.2708905851468444e-03</internalNodes>
          <leafValues>
            6.3523435592651367e-01 -7.7152127027511597e-01</leafValues></_>
        <_>
          <internalNodes>
            0 -1 57 6.2174228951334953e-03</internalNodes>
          <leafValues>
            -6.1273068189620972e-01 6.8286472558975220e-01</leafValues></_>
        <_>
          <internalNodes>
            0 -1 44 -2.3207550402730703e-03</internalNodes>
          <leafValues>
            -9.6101295948028564e-01 4.5025718212127686e-01</leafValues></_>
        <_>
          <internalNodes>
            0 -1 4 -4.7723524039611220e-04</internalNodes>
          <leafValues>
            -9.4032496213912964e-01 3.1676706671714783e-01</leafValues></_></weakClassifiers></_>
    <!-- stage 6 -->
    <_>
      <maxWeakCount>5</maxWeakCount>
      <stageThreshold>-9.4926851987838745e-01</stageThreshold>
      <weakClassifiers>
        <_>
          <internalNodes>
            0 -1 19 -5.0865421071648598e-03</internalNodes>
          <leafValues>
            6.6666668653488159e-01 -8.3177572488784790e-01</leafValues></_>
        <_>
          <internalNodes>
            0 -1 40 3.5066972486674786e-04</internalNodes>
          <leafValues>
            -5.8994656801223755e-01 7.1953457593917847e-01</leafValues></_>
        <_>
          <internalNodes>
            0 -1 52 1.2623403221368790e-02</internalNodes>
          <leafValues>
            3.3063238859176636e-01 -9.7024041414260864e-01</leafValues></_>
        <_>
          <internalNodes>
            0 -1 20 9.5323321875184774e-04</internalNodes>
          <leafValues>
            -6.2655365467071533e-01 5.7820528745651245e-01</leafValues></_>
        <_>
          <internalNodes>
            0 -1 73 -3.4522372297942638e-03</internalNodes>
          <leafValues>
            8.4670805931091309e-01 -4.3638393282890320e-01</leafValues></_></weakClassifiers></_>
    <!-- stage 7 -->
    <_>
      <maxWeakCount>5</maxWeakCount>
      <stageThreshold>-1.5426983833312988e+00</stageThreshold>
      <weakClassifiers>
        <_>
          <internalNodes>
            0 -1 0 -4.8084914684295654e-01</internalNodes>
          <leafValues>
            5.6923079490661621e-01 -8.3396226167678833e-01</leafValues></_>
        <_>
          <internalNodes>
            0 -1 51 2.1805651485919952e-03</internalNodes>
          <leafValues>
            -7.7643877267837524e-01 4.5039334893226624e-01</leafValues></_>
        <_>
          <internalNodes>
            0 -1 33 1.2658461928367615e-02</internalNodes>
          <leafValues>
            -6.3641637563705444e-01 5.5271548032760620e-01</leafValues></_>
        <_>
          <internalNodes>
            0 -1 48 1.1323813349008560e-02</internalNodes>
          <leafValues>
            3.4246280789375305e-01 -1.</leafValues></_>
        <_>
          <internalNodes>
            0 -1 38 1.5625113155692816e-03</internalNodes>
          <leafValues>
            3.8532021641731262e-01 -8.6517590284347534e-01</leafValues></_></weakClassifiers></_>
    <!-- stage 8 -->
    <_>
      <maxWeakCount>6</maxWeakCount>
      <stageThreshold>-1.7519329786300659e+00</stageThreshold>
      <weakClassifiers>
        <_>
          <internalNodes>
            0 -1 61 -1.8502771854400635e-03</internalNodes>
          <leafValues>
            7.3913043737411499e-01 -7.9963570833206177e-01</leafValues></_>
        <_>
          <internalNodes>
            0 -1 55 1.7677610740065575e-03</internalNodes>
          <leafValues>
            -5.5652391910552979e-01 8.5769432783126831e-01</leafValues></_>
        <_>
          <internalNodes>
            0 -1 18 -4.9146950244903564e-01</internalNodes>
          <leafValues>
            7.9767739772796631e-01 -4.4973573088645935e-01</leafValues></_>
        <_>
          <internalNodes>
            0 -1 71 1.2249806895852089e-02</internalNodes>
          <leafValues>
            -8.2501208782196045e-01 4.9583631753921509e-01</leafValues></_>
        <_>
          <internalNodes>
            0 -1 42 3.5440931096673012e-03</internalNodes>
          <leafValues>
            -8.2085293531417847e-01 4.1344046592712402e-01</leafValues></_>
        <_>
          <internalNodes>
            0 -1 5 1.5368760796263814e-03</internalNodes>
          <leafValues>
            3.7897908687591553e-01 -9.2030000686645508e-01</leafValues></_></weakClassifiers></_>
    <!-- stage 9 -->
    <_>
      <maxWeakCount>5</maxWeakCount>
      <stageThreshold>-1.3734574317932129e+00</stageThreshold>
      <weakClassifiers>
        <_>
          <internalNodes>
            0 -1 16 -6.6029694862663746e-03</internalNodes>
          <leafValues>
            4.6875000000000000e-01 -8.1920903921127319e-01</leafValues></_>
        <_>
          <internalNodes>
            0 -1 23 -1.6817131545394659e-03</internalNodes>
          <leafValues>
            5.4486203193664551e-01 -6.2000119686126709e-01</leafValues></_>
        <_>
          <internalNodes>
            0 -1 39 -5.2861811127513647e-04</internalNodes>
          <leafValues>
            -9.9145328998565674e-01 3.1310802698135376e-01</leafValues></_>
        <_>
          <internalNodes>
            0 -1 34 2.9201374854892492e-03</internalNodes>
          <leafValues>
            -9.0657818317413330e-01 2.9905122518539429e-01</leafValues></_>
        <_>
          <internalNodes>
            0 -1 70 6.7466981709003448e-03</internalNodes>
          <leafValues>
            -5.4640644788742065e-01 6.7825001478195190e-01</leafValues></_></weakClassifiers></_>
    <!-- stage 10 -->
    <_>
      <maxWeakCount>5</maxWeakCount>
      <stageThreshold>-1.4973968267440796e+00</stageThreshold>
      <weakClassifiers>
        <_>
          <internalNodes>
            0 -1 14 4.3863384053111076e-03</internalNodes>
          <leafValues>
            -8.0847144126892090e-01 6.5384614467620850e-01</leafValues></_>
        <_>
          <internalNodes>
            0 -1 2 4.0407124906778336e-03</internalNodes>
          <leafValues>
            -7.7154922485351562e-01 3.2482859492301941e-01</leafValues></_>
        <_>
          <internalNodes>
            0 -1 41 -7.6981796883046627e-03</internalNodes>
          <leafValues>
            6.9600820541381836e-01 -5.1102006435394287e-01</leafValues></_>
        <_>
          <internalNodes>
            0 -1 37 2.7348127216100693e-02</internalNodes>
          <leafValues>
            3.1970739364624023e-01 -9.8687034845352173e-01</leafValues></_>
        <_>
          <internalNodes>
            0 -1 29 -2.8660171665251255e-03</internalNodes>
          <leafValues>
            -9.1234982013702393e-01 2.7393651008605957e-01</leafValues></_></weakClassifiers></_>
    <!-- stage 11 -->
    <_>
      <maxWeakCount>7</maxWeakCount>
      <stageThreshold>-1.8865503072738647e+00</stageThreshold>
      <weakClassifiers>
        <_>
          <internalNodes>
            0 -1 49 4.1103661060333252e-03</internalNodes>
          <leafValues>
            -8.9495795965194702e-01 1.7647059261798859e-01</leafValues></_>
        <_>
          <internalNodes>
            0 -1 60 1.2585979700088501e-01</internalNodes>
          <leafValues>
            -6.4093202352523804e-01 7.0806002616882324e-01</leafValues></_>
        <_>
          <internalNodes>
            0 -1 12 2.1239323541522026e-03</internalNodes>
          <leafValues>
            -7.9383832216262817e-01 4.4453287124633789e-01</leafValues></_>
        <_>
          <internalNodes>
            0 -1 32 -1.9454301800578833e-03</internalNodes>
          <leafValues>
            6.8270117044448853e-01 -4.6312028169631958e-01</leafValues></_>
        <_>
          <internalNodes>
            0 -1 11 1.4040124369785190e-04</internalNodes>
          <leafValues>
            3.5753738880157471e-01 -9.4794791936874390e-01</leafValues></_>
        <_>
          <internalNodes>
            0 -1 35 9.3331234529614449e-03</internalNodes>
          <leafValues>
            2.8033605217933655e-01 -9.8453444242477417e-01</leafValues></_>
        <_>
          <internalNodes>
            0 -1 58 -3.1765797757543623e-04</internalNodes>
          <leafValues>
            -9.8375099897384644e-01 2.6842486858367920e-01</leafValues></_></weakClassifiers></_>
    <!-- stage 12 -->
    <_>
      <maxWeakCount>7</maxWeakCount>
      <stageThreshold>-1.9044505357742310e+00</stageThreshold>
      <weakClassifiers>
        <_>
          <internalNodes>
            0 -1 72 -1.2578212190419436e-03</internalNodes>
          <leafValues>
            5.6923079490661621e-01 -8.3396226167678833e-01</leafValues></_>
        <_>
          <internalNodes>
            0 -1 13 -1.8612712156027555e-03</internalNodes>
          <leafValues>
            4.1864311695098877e-01 -8.0485230684280396e-01</leafValues></_>
        <_>
          <internalNodes>
            0 -1 7 -2.1139245945960283e-03</internalNodes>
          <leafValues>
            4.4948792457580566e-01 -6.7478632926940918e-01</leafValues></_>
        <_>
          <internalNodes>
            0 -1 17 8.3658639341592789e-03</internalNodes>
          <leafValues>
            3.2269456982612610e-01 -9.4083636999130249e-01</leafValues></_>
        <_>
          <internalNodes>
            0 -1 3 -1.4737925084773451e-04</internalNodes>
          <leafValues>
            -9.4099849462509155e-01 2.7802693843841553e-01</leafValues></_>
        <_>
          <internalNodes>
            0 -1 21 1.7491992330178618e-03</internalNodes>
          <leafValues>
            -5.1526725292205811e-01 7.0919203758239746e-01</leafValues></_>
        <_>
          <internalNodes>
            0 -1 28 1.2924276292324066e-02</internalNodes>
          <leafValues>
            3.2369613647460938e-01 -9.6693968772888184e-01</leafValues></_></weakClassifiers></_>
    <!-- stage 13 -->
    <_>
      <maxWeakCount>10</maxWeakCount>
      <stageThreshold>-2.4193015098571777e+00</stageThreshold>
      <weakClassifiers>
        <_>
          <internalNodes>
            0 -1 43 -2.8161918744444847e-03</internalNodes>
          <leafValues>
            8.0000001192092896e-01 -8.4672898054122925e-01</leafValues></_>
        <_>
          <internalNodes>
            0 -1 46 -5.8286668718210422e-06</internalNodes>
          <leafValues>
            4.0513646602630615e-01 -8.3963066339492798e-01</leafValues></_>
        <_>
          <internalNodes>
            0 -1 47 8.9039979502558708e-04</internalNodes>
          <leafValues>
            -8.1071549654006958e-01 4.7413557767868042e-01</leafValues></_>
        <_>
          <internalNodes>
            0 -1 65 -1.3878305908292532e-03</internalNodes>
          <leafValues>
            5.9140783548355103e-01 -5.9145045280456543e-01</leafValues></_>
        <_>
          <internalNodes>
            0 -1 8 -1.2446549953892827e-04</internalNodes>
          <leafValues>
            -9.4848042726516724e-01 3.0388143658638000e-01</leafValues></_>
        <_>
          <internalNodes>
            0 -1 56 6.6002169623970985e-03</internalNodes>
          <leafValues>
            -8.6297982931137085e-01 2.9327031970024109e-01</leafValues></_>
        <_>
          <internalNodes>
            0 -1 53 -7.2777969762682915e-04</internalNodes>
          <leafValues>
            7.6329505443572998e-01 -4.0064662694931030e-01</leafValues></_>
        <_>
          <internalNodes>
            0 -1 64 6.2305340543389320e-04</internalNodes>
          <leafValues>
            3.8267990946769714e-01 -8.0196738243103027e-01</leafValues></_>
        <_>
          <internalNodes>
            0 -1 6 -1.0154134361073375e-03</internalNodes>
          <leafValues>
            7.4293041229248047e-01 -3.4467896819114685e-01</leafValues></_>
        <_>
          <internalNodes>
            0 -1 10 -1.4864202821627259e-03</internalNodes>
          <leafValues>
            -6.6985982656478882e-01 4.3471795320510864e-01</leafValues></_></weakClassifiers></_></stages>
  <features>
    <_>
      <rects>
        <_>
          0 0 34 46 -1.</_>
        <_>
          0 23 34 23 2.</_></rects>
      <tilted>0</tilted></_>
    <_>
      <rects>
        <_>
          0 11 8 22 -1.</_>
        <_>
          2 11 4 22 2.</_></rects>
      <tilted>0</tilted></_>
    <_>
      <rects>
        <_>
          0 20 36 12 -1.</_>
        <_>
          0 20 18 6 2.</_>
        <_>
          18 26 18 6 2.</_></rects>
      <tilted>0</tilted></_>
    <_>
      <rects>
        <_>
          1 0 3 11 -1.</_>
        <_>
          2 0 1 11 3.</_></rects>
      <tilted>0</tilted></_>
    <_>
      <rects>
        <_>
          1 0 32 28 -1.</_>
        <_>
          9 0 16 28 2.</_></rects>
      <tilted>0</tilted></_>
    <_>
      <rects>
        <_>
          1 15 12 16 -1.</_>
        <_>
          1 19 12 8 2.</_></rects>
      <tilted>0</tilted></_>
    <_>
      <rects>
        <_>
          1 34 14 6 -1.</_>
        <_>
          1 34 7 3 2.</_>
        <_>
          8 37 7 3 2.</_></rects>
      <tilted>0</tilted></_>
    <_>
      <rects>
        <_>
          1 39 12 8 -1.</_>
        <_>
          7 39 6 8 2.</_></rects>
      <tilted>0</tilted></_>
    <_>
      <rects>
        <_>
          2 2 3 6 -1.</_>
        <_>
          3 2 1 6 3.</_></rects>
      <tilted>0</tilted></_>
    <_>
      <rects>
        <_>
          2 20 8 14 -1.</_>
        <_>
          6 20 4 14 2.</_></rects>
      <tilted>0</tilted></_>
    <_>
      <rects>
        <_>
          3 0 42 48 -1.</_>
        <_>
          24 0 21 48 2.</_></rects>
      <tilted>0</tilted></_>
    <_>
      <rects>
        <_>
          4 4 2 3 -1.</_>
        <_>
          3 5 2 1 3.</_></rects>
      <tilted>1</tilted></_>
    <_>
      <rects>
        <_>
          4 10 12 3 -1.</_>
        <_>
          10 10 6 3 2.</_></rects>
      <tilted>0</tilted></_>
    <_>
      <rects>
        <_>
          5 4 8 3 -1.</_>
        <_>
          7 6 4 3 2.</_></rects>
      <tilted>1</tilted></_>
    <_>
      <rects>
        <_>
          5 26 6 4 -1.</_>
        <_>
          4 27 6 2 2.</_></rects>
      <tilted>1</tilted></_>
    <_>
      <rects>
        <_>
          5 38 14 6 -1.</_>
        <_>
          5 38 7 3 2.</_>
        <_>
          12 41 7 3 2.</_></rects>
      <tilted>0</tilted></_>
    <_>
      <rects>
        <_>
          7 8 9 4 -1.</_>
        <_>
          6 9 9 2 2.</_></rects>
      <tilted>1</tilted></_>
    <_>
      <rects>
        <_>
          7 34 32 13 -1.</_>
        <_>
          15 34 16 13 2.</_></rects>
      <tilted>0</tilted></_>
    <_>
      <rects>
        <_>
          8 1 40 46 -1.</_>
        <_>
          8 24 40 23 2.</_></rects>
      <tilted>0</tilted></_>
    <_>
      <rects>
        <_>
          8 8 7 4 -1.</_>
        <_>
          7 9 7 2 2.</_></rects>
      <tilted>1</tilted></_>
    <_>
      <rects>
        <_>
          8 20 3 6 -1.</_>
        <_>
          8 22 3 2 3.</_></rects>
      <tilted>0</tilted></_>
    <_>
      <rects>
        <_>
          9 29 8 3 -1.</_>
        <_>
          8 30 8 1 3.</_></rects>
      <tilted>1</tilted></_>
    <_>
      <rects>
        <_>
          9 41 4 4 -1.</_>
        <_>
          9 41 2 2 2.</_>
        <_>
          11 43 2 2 2.</_></rects>
      <tilted>0</tilted></_>
    <_>
      <rects>
        <_>
          10 26 5 4 -1.</_>
        <_>
          9 27 5 2 2.</_></rects>
      <tilted>1</tilted></_>
    <_>
      <rects>
        <_>
          11 0 15 20 -1.</_>
        <_>
          11 5 15 10 2.</_></rects>
      <tilted>0</tilted></_>
    <_>
      <rects>
        <_>
          11 1 4 4 -1.</_>
        <_>
          12 2 2 4 2.</_></rects>
      <tilted>1</tilted></_>
    <_>
      <rects>
        <_>
          11 1 4 7 -1.</_>
        <_>
          12 2 2 7 2.</_></rects>
      <tilted>1</tilted></_>
    <_>
      <rects>
        <_>
          11 1 21 15 -1.</_>
        <_>
          11 6 21 5 3.</_></rects>
      <tilted>0</tilted></_>
    <_>
      <rects>
        <_>
          11 5 9 40 -1.</_>
        <_>
          11 15 9 20 2.</_></rects>
      <tilted>0</tilted></_>
    <_>
      <rects>
        <_>
          11 29 18 18 -1.</_>
        <_>
          11 35 18 6 3.</_></rects>
      <tilted>0</tilted></_>
    <_>
      <rects>
        <_>
          12 1 5 18 -1.</_>
        <_>
          12 7 5 6 3.</_></rects>
      <tilted>0</tilted></_>
    <_>
      <rects>
        <_>
          12 31 6 4 -1.</_>
        <_>
          11 32 6 2 2.</_></rects>
      <tilted>1</tilted></_>
    <_>
      <rects>
        <_>
          12 36 4 4 -1.</_>
        <_>
          11 37 4 2 2.</_></rects>
      <tilted>1</tilted></_>
    <_>
      <rects>
        <_>
          13 1 16 6 -1.</_>
        <_>
          13 4 16 3 2.</_></rects>
      <tilted>0</tilted></_>
    <_>
      <rects>
        <_>
          13 7 28 10 -1.</_>
        <_>
          13 7 14 5 2.</_>
        <_>
          27 12 14 5 2.</_></rects>
      <tilted>0</tilted></_>
    <_>
      <rects>
        <_>
          14 29 34 12 -1.</_>
        <_>
          14 32 34 6 2.</_></rects>
      <tilted>0</tilted></_>
    <_>
      <rects>
        <_>
          15 41 18 4 -1.</_>
        <_>
          15 43 18 2 2.</_></rects>
      <tilted>0</tilted></_>
    <_>
      <rects>
        <_>
          16 12 30 9 -1.</_>
        <_>
          26 15 10 3 9.</_></rects>
      <tilted>0</tilted></_>
    <_>
      <rects>
        <_>
          16 15 30 17 -1.</_>
        <_>
          31 15 15 17 2.</_></rects>
      <tilted>0</tilted></_>
    <_>
      <rects>
        <_>
          16 16 24 4 -1.</_>
        <_>
          16 16 12 4 2.</_></rects>
      <tilted>1</tilted></_>
    <_>
      <rects>
        <_>
          17 1 1 3 -1.</_>
        <_>
          17 2 1 1 3.</_></rects>
      <tilted>0</tilted></_>
    <_>
      <rects>
        <_>
          17 4 12 12 -1.</_>
        <_>
          20 4 6 12 2.</_></rects>
      <tilted>0</tilted></_>
    <_>
      <rects>
        <_>
          17 6 24 10 -1.</_>
        <_>
          17 6 12 5 2.</_>
        <_>
          29 11 12 5 2.</_></rects>
      <tilted>0</tilted></_>
    <_>
      <rects>
        <_>
          17 31 5 4 -1.</_>
        <_>
          16 32 5 2 2.</_></rects>
      <tilted>1</tilted></_>
    <_>
      <rects>
        <_>
          17 31 26 3 -1.</_>
        <_>
          30 31 13 3 2.</_></rects>
      <tilted>0</tilted></_>
    <_>
      <rects>
        <_>
          17 42 23 6 -1.</_>
        <_>
          17 44 23 2 3.</_></rects>
      <tilted>0</tilted></_>
    <_>
      <rects>
        <_>
          18 26 6 2 -1.</_>
        <_>
          18 27 6 1 2.</_></rects>
      <tilted>0</tilted></_>
    <_>
      <rects>
        <_>
          19 1 4 9 -1.</_>
        <_>
          19 4 4 3 3.</_></rects>
      <tilted>0</tilted></_>
    <_>
      <rects>
        <_>
          19 7 15 15 -1.</_>
        <_>
          14 12 15 5 3.</_></rects>
      <tilted>1</tilted></_>
    <_>
      <rects>
        <_>
          20 12 12 5 -1.</_>
        <_>
          24 12 4 5 3.</_></rects>
      <tilted>0</tilted></_>
    <_>
      <rects>
        <_>
          21 0 2 4 -1.</_>
        <_>
          21 1 2 2 2.</_></rects>
      <tilted>0</tilted></_>
    <_>
      <rects>
        <_>
          21 11 12 3 -1.</_>
        <_>
          25 11 4 3 3.</_></rects>
      <tilted>0</tilted></_>
    <_>
      <rects>
        <_>
          21 14 26 20 -1.</_>
        <_>
          21 14 13 10 2.</_>
        <_>
          34 24 13 10 2.</_></rects>
      <tilted>0</tilted></_>
    <_>
      <rects>
        <_>
          21 19 2 8 -1.</_>
        <_>
          21 21 2 4 2.</_></rects>
      <tilted>0</tilted></_>
    <_>
      <rects>
        <_>
          22 0 5 4 -1.</_>
        <_>
          22 1 5 2 2.</_></rects>
      <tilted>0</tilted></_>
    <_>
      <rects>
        <_>
          22 1 5 3 -1.</_>
        <_>
          22 2 5 1 3.</_></rects>
      <tilted>0</tilted></_>
    <_>
      <rects>
        <_>
          22 17 24 19 -1.</_>
        <_>
          30 17 8 19 3.</_></rects>
      <tilted>0</tilted></_>
    <_>
      <rects>
        <_>
          22 27 12 6 -1.</_>
        <_>
          20 29 12 2 3.</_></rects>
      <tilted>1</tilted></_>
    <_>
      <rects>
        <_>
          23 19 20 27 -1.</_>
        <_>
          23 28 20 9 3.</_></rects>
      <tilted>0</tilted></_>
    <_>
      <rects>
        <_>
          26 20 3 8 -1.</_>
        <_>
          26 22 3 4 2.</_></rects>
      <tilted>0</tilted></_>
    <_>
      <rects>
        <_>
          28 1 10 28 -1.</_>
        <_>
          28 1 10 14 2.</_></rects>
      <tilted>1</tilted></_>
    <_>
      <rects>
        <_>
          29 1 2 4 -1.</_>
        <_>
          29 2 2 2 2.</_></rects>
      <tilted>0</tilted></_>
    <_>
      <rects>
        <_>
          29 6 18 36 -1.</_>
        <_>
          29 6 9 18 2.</_>
        <_>
          38 24 9 18 2.</_></rects>
      <tilted>0</tilted></_>
    <_>
      <rects>
        <_>
          29 25 18 2 -1.</_>
        <_>
          29 25 9 2 2.</_></rects>
      <tilted>1</tilted></_>
    <_>
      <rects>
        <_>
          31 1 12 3 -1.</_>
        <_>
          31 1 6 3 2.</_></rects>
      <tilted>1</tilted></_>
    <_>
      <rects>
        <_>
          31 34 16 7 -1.</_>
        <_>
          35 34 8 7 2.</_></rects>
      <tilted>0</tilted></_>
    <_>
      <rects>
        <_>
          32 20 15 8 -1.</_>
        <_>
          37 20 5 8 3.</_></rects>
      <tilted>0</tilted></_>
    <_>
      <rects>
        <_>
          37 18 7 20 -1.</_>
        <_>
          37 23 7 10 2.</_></rects>
      <tilted>0</tilted></_>
    <_>
      <rects>
        <_>
          37 25 8 12 -1.</_>
        <_>
          39 25 4 12 2.</_></rects>
      <tilted>0</tilted></_>
    <_>
      <rects>
        <_>
          40 5 8 6 -1.</_>
        <_>
          42 5 4 6 2.</_></rects>
      <tilted>0</tilted></_>
    <_>
      <rects>
        <_>
          42 1 6 6 -1.</_>
        <_>
          40 3 6 2 3.</_></rects>
      <tilted>1</tilted></_>
    <_>
      <rects>
        <_>
          42 19 6 21 -1.</_>
        <_>
          35 26 6 7 3.</_></rects>
      <tilted>1</tilted></_>
    <_>
      <rects>
        <_>
          42 29 4 2 -1.</_>
        <_>
          43 30 2 2 2.</_></rects>
      <tilted>1</tilted></_>
    <_>
      <rects>
        <_>
          44 20 4 9 -1.</_>
        <_>
          45 20 2 9 2.</_></rects>
      <tilted>0</tilted></_></features></cascade>
</opencv_storage>
